digraph Tree {
node [shape=box, style="filled, rounded", color="black", fontname=helvetica] ;
edge [fontname=helvetica] ;
0 [label="bedrooms <= 3.5\ngini = 0.488\nsamples = 273\nvalue = [158, 115]\nclass = False", fillcolor="#f8ddc9"] ;
1 [label="bathrooms <= 1.875\ngini = 0.476\nsamples = 123\nvalue = [48, 75]\nclass = True", fillcolor="#b8dcf6"] ;
0 -> 1 [labeldistance=2.5, labelangle=45, headlabel="True"] ;
2 [label="view <= 0.5\ngini = 0.398\nsamples = 73\nvalue = [20, 53]\nclass = True", fillcolor="#84c2ef"] ;
1 -> 2 ;
3 [label="bedrooms <= 2.5\ngini = 0.415\nsamples = 68\nvalue = [20, 48]\nclass = True", fillcolor="#8bc6f0"] ;
2 -> 3 ;
4 [label="gini = 0.0\nsamples = 2\nvalue = [2, 0]\nclass = False", fillcolor="#e58139"] ;
3 -> 4 ;
5 [label="bathrooms <= 1.625\ngini = 0.397\nsamples = 66\nvalue = [18, 48]\nclass = True", fillcolor="#83c2ef"] ;
3 -> 5 ;
6 [label="condition <= 3.5\ngini = 0.278\nsamples = 30\nvalue = [5, 25]\nclass = True", fillcolor="#61b1ea"] ;
5 -> 6 ;
7 [label="bathrooms <= 1.25\ngini = 0.355\nsamples = 13\nvalue = [3, 10]\nclass = True", fillcolor="#74baed"] ;
6 -> 7 ;
8 [label="gini = 0.408\nsamples = 7\nvalue = [2, 5]\nclass = True", fillcolor="#88c4ef"] ;
7 -> 8 ;
9 [label="gini = 0.278\nsamples = 6\nvalue = [1, 5]\nclass = True", fillcolor="#61b1ea"] ;
7 -> 9 ;
10 [label="bathrooms <= 1.25\ngini = 0.208\nsamples = 17\nvalue = [2, 15]\nclass = True", fillcolor="#53aae8"] ;
6 -> 10 ;
11 [label="gini = 0.26\nsamples = 13\nvalue = [2, 11]\nclass = True", fillcolor="#5dafea"] ;
10 -> 11 ;
12 [label="gini = 0.0\nsamples = 4\nvalue = [0, 4]\nclass = True", fillcolor="#399de5"] ;
10 -> 12 ;
13 [label="condition <= 4.5\ngini = 0.461\nsamples = 36\nvalue = [13, 23]\nclass = True", fillcolor="#a9d4f4"] ;
5 -> 13 ;
14 [label="condition <= 3.5\ngini = 0.472\nsamples = 34\nvalue = [13, 21]\nclass = True", fillcolor="#b4daf5"] ;
13 -> 14 ;
15 [label="gini = 0.496\nsamples = 11\nvalue = [5, 6]\nclass = True", fillcolor="#deeffb"] ;
14 -> 15 ;
16 [label="gini = 0.454\nsamples = 23\nvalue = [8, 15]\nclass = True", fillcolor="#a3d1f3"] ;
14 -> 16 ;
17 [label="gini = 0.0\nsamples = 2\nvalue = [0, 2]\nclass = True", fillcolor="#399de5"] ;
13 -> 17 ;
18 [label="gini = 0.0\nsamples = 5\nvalue = [0, 5]\nclass = True", fillcolor="#399de5"] ;
2 -> 18 ;
19 [label="view <= 2.5\ngini = 0.493\nsamples = 50\nvalue = [28, 22]\nclass = False", fillcolor="#f9e4d5"] ;
1 -> 19 ;
20 [label="condition <= 4.5\ngini = 0.454\nsamples = 43\nvalue = [28, 15]\nclass = False", fillcolor="#f3c4a3"] ;
19 -> 20 ;
21 [label="floors <= 1.25\ngini = 0.42\nsamples = 40\nvalue = [28, 12]\nclass = False", fillcolor="#f0b78e"] ;
20 -> 21 ;
22 [label="view <= 1.0\ngini = 0.486\nsamples = 24\nvalue = [14, 10]\nclass = False", fillcolor="#f8dbc6"] ;
21 -> 22 ;
23 [label="bathrooms <= 2.875\ngini = 0.476\nsamples = 23\nvalue = [14, 9]\nclass = False", fillcolor="#f6d2b8"] ;
22 -> 23 ;
24 [label="bathrooms <= 2.625\ngini = 0.483\nsamples = 22\nvalue = [13, 9]\nclass = False", fillcolor="#f7d8c2"] ;
23 -> 24 ;
25 [label="condition <= 3.5\ngini = 0.472\nsamples = 21\nvalue = [13, 8]\nclass = False", fillcolor="#f5cfb3"] ;
24 -> 25 ;
26 [label="bathrooms <= 2.125\ngini = 0.42\nsamples = 10\nvalue = [7, 3]\nclass = False", fillcolor="#f0b78e"] ;
25 -> 26 ;
27 [label="gini = 0.0\nsamples = 3\nvalue = [3, 0]\nclass = False", fillcolor="#e58139"] ;
26 -> 27 ;
28 [label="gini = 0.49\nsamples = 7\nvalue = [4, 3]\nclass = False", fillcolor="#f8e0ce"] ;
26 -> 28 ;
29 [label="bathrooms <= 2.125\ngini = 0.496\nsamples = 11\nvalue = [6, 5]\nclass = False", fillcolor="#fbeade"] ;
25 -> 29 ;
30 [label="gini = 0.375\nsamples = 4\nvalue = [1, 3]\nclass = True", fillcolor="#7bbeee"] ;
29 -> 30 ;
31 [label="bathrooms <= 2.375\ngini = 0.408\nsamples = 7\nvalue = [5, 2]\nclass = False", fillcolor="#efb388"] ;
29 -> 31 ;
32 [label="gini = 0.375\nsamples = 4\nvalue = [3, 1]\nclass = False", fillcolor="#eeab7b"] ;
31 -> 32 ;
33 [label="gini = 0.444\nsamples = 3\nvalue = [2, 1]\nclass = False", fillcolor="#f2c09c"] ;
31 -> 33 ;
34 [label="gini = 0.0\nsamples = 1\nvalue = [0, 1]\nclass = True", fillcolor="#399de5"] ;
24 -> 34 ;
35 [label="gini = 0.0\nsamples = 1\nvalue = [1, 0]\nclass = False", fillcolor="#e58139"] ;
23 -> 35 ;
36 [label="gini = 0.0\nsamples = 1\nvalue = [0, 1]\nclass = True", fillcolor="#399de5"] ;
22 -> 36 ;
37 [label="condition <= 3.5\ngini = 0.219\nsamples = 16\nvalue = [14, 2]\nclass = False", fillcolor="#e99355"] ;
21 -> 37 ;
38 [label="gini = 0.0\nsamples = 7\nvalue = [7, 0]\nclass = False", fillcolor="#e58139"] ;
37 -> 38 ;
39 [label="bathrooms <= 2.375\ngini = 0.346\nsamples = 9\nvalue = [7, 2]\nclass = False", fillcolor="#eca572"] ;
37 -> 39 ;
40 [label="gini = 0.0\nsamples = 4\nvalue = [4, 0]\nclass = False", fillcolor="#e58139"] ;
39 -> 40 ;
41 [label="bathrooms <= 2.625\ngini = 0.48\nsamples = 5\nvalue = [3, 2]\nclass = False", fillcolor="#f6d5bd"] ;
39 -> 41 ;
42 [label="view <= 1.0\ngini = 0.444\nsamples = 3\nvalue = [1, 2]\nclass = True", fillcolor="#9ccef2"] ;
41 -> 42 ;
43 [label="gini = 0.0\nsamples = 2\nvalue = [0, 2]\nclass = True", fillcolor="#399de5"] ;
42 -> 43 ;
44 [label="gini = 0.0\nsamples = 1\nvalue = [1, 0]\nclass = False", fillcolor="#e58139"] ;
42 -> 44 ;
45 [label="gini = 0.0\nsamples = 2\nvalue = [2, 0]\nclass = False", fillcolor="#e58139"] ;
41 -> 45 ;
46 [label="gini = 0.0\nsamples = 3\nvalue = [0, 3]\nclass = True", fillcolor="#399de5"] ;
20 -> 46 ;
47 [label="gini = 0.0\nsamples = 7\nvalue = [0, 7]\nclass = True", fillcolor="#399de5"] ;
19 -> 47 ;
48 [label="view <= 2.5\ngini = 0.391\nsamples = 150\nvalue = [110, 40]\nclass = False", fillcolor="#eeaf81"] ;
0 -> 48 [labeldistance=2.5, labelangle=-45, headlabel="False"] ;
49 [label="bathrooms <= 2.125\ngini = 0.356\nsamples = 138\nvalue = [106, 32]\nclass = False", fillcolor="#eda775"] ;
48 -> 49 ;
50 [label="condition <= 4.5\ngini = 0.448\nsamples = 59\nvalue = [39, 20]\nclass = False", fillcolor="#f2c29f"] ;
49 -> 50 ;
51 [label="floors <= 1.25\ngini = 0.417\nsamples = 54\nvalue = [38, 16]\nclass = False", fillcolor="#f0b68c"] ;
50 -> 51 ;
52 [label="bathrooms <= 1.875\ngini = 0.431\nsamples = 51\nvalue = [35, 16]\nclass = False", fillcolor="#f1bb94"] ;
51 -> 52 ;
53 [label="bedrooms <= 4.5\ngini = 0.405\nsamples = 39\nvalue = [28, 11]\nclass = False", fillcolor="#efb287"] ;
52 -> 53 ;
54 [label="bathrooms <= 1.25\ngini = 0.367\nsamples = 33\nvalue = [25, 8]\nclass = False", fillcolor="#eda978"] ;
53 -> 54 ;
55 [label="condition <= 3.5\ngini = 0.5\nsamples = 4\nvalue = [2, 2]\nclass = False", fillcolor="#ffffff"] ;
54 -> 55 ;
56 [label="gini = 0.5\nsamples = 2\nvalue = [1, 1]\nclass = False", fillcolor="#ffffff"] ;
55 -> 56 ;
57 [label="gini = 0.5\nsamples = 2\nvalue = [1, 1]\nclass = False", fillcolor="#ffffff"] ;
55 -> 57 ;
58 [label="view <= 1.0\ngini = 0.328\nsamples = 29\nvalue = [23, 6]\nclass = False", fillcolor="#eca26d"] ;
54 -> 58 ;
59 [label="condition <= 3.5\ngini = 0.337\nsamples = 28\nvalue = [22, 6]\nclass = False", fillcolor="#eca36f"] ;
58 -> 59 ;
60 [label="bathrooms <= 1.625\ngini = 0.32\nsamples = 15\nvalue = [12, 3]\nclass = False", fillcolor="#eca06a"] ;
59 -> 60 ;
61 [label="gini = 0.32\nsamples = 5\nvalue = [4, 1]\nclass = False", fillcolor="#eca06a"] ;
60 -> 61 ;
62 [label="gini = 0.32\nsamples = 10\nvalue = [8, 2]\nclass = False", fillcolor="#eca06a"] ;
60 -> 62 ;
63 [label="gini = 0.355\nsamples = 13\nvalue = [10, 3]\nclass = False", fillcolor="#eda774"] ;
59 -> 63 ;
64 [label="gini = 0.0\nsamples = 1\nvalue = [1, 0]\nclass = False", fillcolor="#e58139"] ;
58 -> 64 ;
65 [label="condition <= 3.5\ngini = 0.5\nsamples = 6\nvalue = [3, 3]\nclass = False", fillcolor="#ffffff"] ;
53 -> 65 ;
66 [label="view <= 1.0\ngini = 0.444\nsamples = 3\nvalue = [1, 2]\nclass = True", fillcolor="#9ccef2"] ;
65 -> 66 ;
67 [label="bathrooms <= 1.625\ngini = 0.5\nsamples = 2\nvalue = [1, 1]\nclass = False", fillcolor="#ffffff"] ;
66 -> 67 ;
68 [label="gini = 0.0\nsamples = 1\nvalue = [0, 1]\nclass = True", fillcolor="#399de5"] ;
67 -> 68 ;
69 [label="gini = 0.0\nsamples = 1\nvalue = [1, 0]\nclass = False", fillcolor="#e58139"] ;
67 -> 69 ;
70 [label="gini = 0.0\nsamples = 1\nvalue = [0, 1]\nclass = True", fillcolor="#399de5"] ;
66 -> 70 ;
71 [label="view <= 1.0\ngini = 0.444\nsamples = 3\nvalue = [2, 1]\nclass = False", fillcolor="#f2c09c"] ;
65 -> 71 ;
72 [label="bathrooms <= 1.625\ngini = 0.5\nsamples = 2\nvalue = [1, 1]\nclass = False", fillcolor="#ffffff"] ;
71 -> 72 ;
73 [label="gini = 0.0\nsamples = 1\nvalue = [1, 0]\nclass = False", fillcolor="#e58139"] ;
72 -> 73 ;
74 [label="gini = 0.0\nsamples = 1\nvalue = [0, 1]\nclass = True", fillcolor="#399de5"] ;
72 -> 74 ;
75 [label="gini = 0.0\nsamples = 1\nvalue = [1, 0]\nclass = False", fillcolor="#e58139"] ;
71 -> 75 ;
76 [label="bedrooms <= 4.5\ngini = 0.486\nsamples = 12\nvalue = [7, 5]\nclass = False", fillcolor="#f8dbc6"] ;
52 -> 76 ;
77 [label="condition <= 3.5\ngini = 0.494\nsamples = 9\nvalue = [4, 5]\nclass = True", fillcolor="#d7ebfa"] ;
76 -> 77 ;
78 [label="gini = 0.0\nsamples = 3\nvalue = [0, 3]\nclass = True", fillcolor="#399de5"] ;
77 -> 78 ;
79 [label="gini = 0.444\nsamples = 6\nvalue = [4, 2]\nclass = False", fillcolor="#f2c09c"] ;
77 -> 79 ;
80 [label="gini = 0.0\nsamples = 3\nvalue = [3, 0]\nclass = False", fillcolor="#e58139"] ;
76 -> 80 ;
81 [label="gini = 0.0\nsamples = 3\nvalue = [3, 0]\nclass = False", fillcolor="#e58139"] ;
51 -> 81 ;
82 [label="bathrooms <= 1.625\ngini = 0.32\nsamples = 5\nvalue = [1, 4]\nclass = True", fillcolor="#6ab6ec"] ;
50 -> 82 ;
83 [label="gini = 0.0\nsamples = 1\nvalue = [0, 1]\nclass = True", fillcolor="#399de5"] ;
82 -> 83 ;
84 [label="bathrooms <= 1.875\ngini = 0.375\nsamples = 4\nvalue = [1, 3]\nclass = True", fillcolor="#7bbeee"] ;
82 -> 84 ;
85 [label="gini = 0.444\nsamples = 3\nvalue = [1, 2]\nclass = True", fillcolor="#9ccef2"] ;
84 -> 85 ;
86 [label="gini = 0.0\nsamples = 1\nvalue = [0, 1]\nclass = True", fillcolor="#399de5"] ;
84 -> 86 ;
87 [label="bathrooms <= 2.625\ngini = 0.258\nsamples = 79\nvalue = [67, 12]\nclass = False", fillcolor="#ea985c"] ;
49 -> 87 ;
88 [label="bathrooms <= 2.375\ngini = 0.185\nsamples = 58\nvalue = [52, 6]\nclass = False", fillcolor="#e89050"] ;
87 -> 88 ;
89 [label="condition <= 3.5\ngini = 0.114\nsamples = 33\nvalue = [31, 2]\nclass = False", fillcolor="#e78946"] ;
88 -> 89 ;
90 [label="view <= 0.5\ngini = 0.245\nsamples = 14\nvalue = [12, 2]\nclass = False", fillcolor="#e9965a"] ;
89 -> 90 ;
91 [label="floors <= 1.5\ngini = 0.298\nsamples = 11\nvalue = [9, 2]\nclass = False", fillcolor="#eb9d65"] ;
90 -> 91 ;
92 [label="bedrooms <= 4.5\ngini = 0.346\nsamples = 9\nvalue = [7, 2]\nclass = False", fillcolor="#eca572"] ;
91 -> 92 ;
93 [label="gini = 0.375\nsamples = 8\nvalue = [6, 2]\nclass = False", fillcolor="#eeab7b"] ;
92 -> 93 ;
94 [label="gini = 0.0\nsamples = 1\nvalue = [1, 0]\nclass = False", fillcolor="#e58139"] ;
92 -> 94 ;
95 [label="gini = 0.0\nsamples = 2\nvalue = [2, 0]\nclass = False", fillcolor="#e58139"] ;
91 -> 95 ;
96 [label="gini = 0.0\nsamples = 3\nvalue = [3, 0]\nclass = False", fillcolor="#e58139"] ;
90 -> 96 ;
97 [label="gini = 0.0\nsamples = 19\nvalue = [19, 0]\nclass = False", fillcolor="#e58139"] ;
89 -> 97 ;
98 [label="condition <= 3.5\ngini = 0.269\nsamples = 25\nvalue = [21, 4]\nclass = False", fillcolor="#ea995f"] ;
88 -> 98 ;
99 [label="gini = 0.0\nsamples = 11\nvalue = [11, 0]\nclass = False", fillcolor="#e58139"] ;
98 -> 99 ;
100 [label="floors <= 1.75\ngini = 0.408\nsamples = 14\nvalue = [10, 4]\nclass = False", fillcolor="#efb388"] ;
98 -> 100 ;
101 [label="bedrooms <= 4.5\ngini = 0.375\nsamples = 12\nvalue = [9, 3]\nclass = False", fillcolor="#eeab7b"] ;
100 -> 101 ;
102 [label="condition <= 4.5\ngini = 0.444\nsamples = 9\nvalue = [6, 3]\nclass = False", fillcolor="#f2c09c"] ;
101 -> 102 ;
103 [label="floors <= 1.25\ngini = 0.49\nsamples = 7\nvalue = [4, 3]\nclass = False", fillcolor="#f8e0ce"] ;
102 -> 103 ;
104 [label="view <= 1.0\ngini = 0.5\nsamples = 6\nvalue = [3, 3]\nclass = False", fillcolor="#ffffff"] ;
103 -> 104 ;
105 [label="gini = 0.48\nsamples = 5\nvalue = [2, 3]\nclass = True", fillcolor="#bddef6"] ;
104 -> 105 ;
106 [label="gini = 0.0\nsamples = 1\nvalue = [1, 0]\nclass = False", fillcolor="#e58139"] ;
104 -> 106 ;
107 [label="gini = 0.0\nsamples = 1\nvalue = [1, 0]\nclass = False", fillcolor="#e58139"] ;
103 -> 107 ;
108 [label="gini = 0.0\nsamples = 2\nvalue = [2, 0]\nclass = False", fillcolor="#e58139"] ;
102 -> 108 ;
109 [label="gini = 0.0\nsamples = 3\nvalue = [3, 0]\nclass = False", fillcolor="#e58139"] ;
101 -> 109 ;
110 [label="condition <= 4.5\ngini = 0.5\nsamples = 2\nvalue = [1, 1]\nclass = False", fillcolor="#ffffff"] ;
100 -> 110 ;
111 [label="gini = 0.0\nsamples = 1\nvalue = [1, 0]\nclass = False", fillcolor="#e58139"] ;
110 -> 111 ;
112 [label="gini = 0.0\nsamples = 1\nvalue = [0, 1]\nclass = True", fillcolor="#399de5"] ;
110 -> 112 ;
113 [label="bedrooms <= 4.5\ngini = 0.408\nsamples = 21\nvalue = [15, 6]\nclass = False", fillcolor="#efb388"] ;
87 -> 113 ;
114 [label="floors <= 1.75\ngini = 0.469\nsamples = 8\nvalue = [3, 5]\nclass = True", fillcolor="#b0d8f5"] ;
113 -> 114 ;
115 [label="gini = 0.0\nsamples = 5\nvalue = [0, 5]\nclass = True", fillcolor="#399de5"] ;
114 -> 115 ;
116 [label="gini = 0.0\nsamples = 3\nvalue = [3, 0]\nclass = False", fillcolor="#e58139"] ;
114 -> 116 ;
117 [label="condition <= 3.5\ngini = 0.142\nsamples = 13\nvalue = [12, 1]\nclass = False", fillcolor="#e78c49"] ;
113 -> 117 ;
118 [label="view <= 0.5\ngini = 0.32\nsamples = 5\nvalue = [4, 1]\nclass = False", fillcolor="#eca06a"] ;
117 -> 118 ;
119 [label="bathrooms <= 2.875\ngini = 0.5\nsamples = 2\nvalue = [1, 1]\nclass = False", fillcolor="#ffffff"] ;
118 -> 119 ;
120 [label="gini = 0.0\nsamples = 1\nvalue = [1, 0]\nclass = False", fillcolor="#e58139"] ;
119 -> 120 ;
121 [label="gini = 0.0\nsamples = 1\nvalue = [0, 1]\nclass = True", fillcolor="#399de5"] ;
119 -> 121 ;
122 [label="gini = 0.0\nsamples = 3\nvalue = [3, 0]\nclass = False", fillcolor="#e58139"] ;
118 -> 122 ;
123 [label="gini = 0.0\nsamples = 8\nvalue = [8, 0]\nclass = False", fillcolor="#e58139"] ;
117 -> 123 ;
124 [label="condition <= 4.5\ngini = 0.444\nsamples = 12\nvalue = [4, 8]\nclass = True", fillcolor="#9ccef2"] ;
48 -> 124 ;
125 [label="floors <= 1.5\ngini = 0.5\nsamples = 8\nvalue = [4, 4]\nclass = False", fillcolor="#ffffff"] ;
124 -> 125 ;
126 [label="bathrooms <= 2.375\ngini = 0.375\nsamples = 4\nvalue = [3, 1]\nclass = False", fillcolor="#eeab7b"] ;
125 -> 126 ;
127 [label="gini = 0.0\nsamples = 1\nvalue = [0, 1]\nclass = True", fillcolor="#399de5"] ;
126 -> 127 ;
128 [label="gini = 0.0\nsamples = 3\nvalue = [3, 0]\nclass = False", fillcolor="#e58139"] ;
126 -> 128 ;
129 [label="condition <= 3.5\ngini = 0.375\nsamples = 4\nvalue = [1, 3]\nclass = True", fillcolor="#7bbeee"] ;
125 -> 129 ;
130 [label="gini = 0.0\nsamples = 2\nvalue = [0, 2]\nclass = True", fillcolor="#399de5"] ;
129 -> 130 ;
131 [label="bathrooms <= 4.0\ngini = 0.5\nsamples = 2\nvalue = [1, 1]\nclass = False", fillcolor="#ffffff"] ;
129 -> 131 ;
132 [label="gini = 0.0\nsamples = 1\nvalue = [1, 0]\nclass = False", fillcolor="#e58139"] ;
131 -> 132 ;
133 [label="gini = 0.0\nsamples = 1\nvalue = [0, 1]\nclass = True", fillcolor="#399de5"] ;
131 -> 133 ;
134 [label="gini = 0.0\nsamples = 4\nvalue = [0, 4]\nclass = True", fillcolor="#399de5"] ;
124 -> 134 ;
}